<?xml version="1.0"?>
<opencv_storage>
<cascade>
  <stageType>BOOST</stageType>
  <featureType>HAAR</featureType>
  <height>20</height>
  <width>20</width>
  <stageParams>
    <boostType>GAB</boostType>
    <minHitRate>9.9500000476837158e-01</minHitRate>
    <maxFalseAlarm>5.0000000000000000e-01</maxFalseAlarm>
    <weightTrimRate>9.4999999999999996e-01</weightTrimRate>
    <maxDepth>1</maxDepth>
    <maxWeakCount>100</maxWeakCount></stageParams>
  <featureParams>
    <maxCatCount>0</maxCatCount>
    <featSize>1</featSize>
    <mode>BASIC</mode></featureParams>
  <stageNum>5</stageNum>
  <stages>
    <!-- stage 0 -->
    <_>
      <maxWeakCount>2</maxWeakCount>
      <stageThreshold>-2.1218094229698181e-01</stageThreshold>
      <weakClassifiers>
        <_>
          <internalNodes>
            0 -1 13 1.3758543878793716e-02</internalNodes>
          <leafValues>
            -9.5577394962310791e-01 7.0997846126556396e-01</leafValues></_>
        <_>
          <internalNodes>
            0 -1 3 6.9545306265354156e-02</internalNodes>
          <leafValues>
            -6.3849622011184692e-01 7.4359303712844849e-01</leafValues></_></weakClassifiers></_>
    <!-- stage 1 -->
    <_>
      <maxWeakCount>4</maxWeakCount>
      <stageThreshold>-4.6844041347503662e-01</stageThreshold>
      <weakClassifiers>
        <_>
          <internalNodes>
            0 -1 0 2.2570956498384476e-02</internalNodes>
          <leafValues>
            -3.6470589041709900e-01 7.5714284181594849e-01</leafValues></_>
        <_>
          <internalNodes>
            0 -1 6 -6.9902464747428894e-02</internalNodes>
          <leafValues>
            7.3100852966308594e-01 -3.9352914690971375e-01</leafValues></_>
        <_>
          <internalNodes>
            0 -1 25 -2.8476113453507423e-02</internalNodes>
          <leafValues>
            6.6129952669143677e-01 -4.6645101904869080e-01</leafValues></_>
        <_>
          <internalNodes>
            0 -1 11 7.4889279901981354e-02</internalNodes>
          <leafValues>
            -3.6560311913490295e-01 7.8420817852020264e-01</leafValues></_></weakClassifiers></_>
    <!-- stage 2 -->
    <_>
      <maxWeakCount>6</maxWeakCount>
      <stageThreshold>-6.6807818412780762e-01</stageThreshold>
      <weakClassifiers>
        <_>
          <internalNodes>
            0 -1 14 6.8673472851514816e-03</internalNodes>
          <leafValues>
            -8.1224489212036133e-01 5.5697208642959595e-01</leafValues></_>
        <_>
          <internalNodes>
            0 -1 23 3.2894827425479889e-02</internalNodes>
          <leafValues>
            -5.4401725530624390e-01 5.1446837186813354e-01</leafValues></_>
        <_>
          <internalNodes>
            0 -1 7 -5.5604886263608932e-02</internalNodes>
          <leafValues>
            8.2794111967086792e-01 -3.4560453891754150e-01</leafValues></_>
        <_>
          <internalNodes>
            0 -1 1 7.5487811118364334e-03</internalNodes>
          <leafValues>
            -4.0793207287788391e-01 5.8430927991867065e-01</leafValues></_>
        <_>
          <internalNodes>
            0 -1 20 3.9815409108996391e-03</internalNodes>
          <leafValues>
            2.7002364397048950e-01 -8.3388251066207886e-01</leafValues></_>
        <_>
          <internalNodes>
            0 -1 18 -4.4529130682349205e-03</internalNodes>
          <leafValues>
            -9.3177336454391479e-01 2.2487612068653107e-01</leafValues></_></weakClassifiers></_>
    <!-- stage 3 -->
    <_>
      <maxWeakCount>7</maxWeakCount>
      <stageThreshold>-4.8772552609443665e-01</stageThreshold>
      <weakClassifiers>
        <_>
          <internalNodes>
            0 -1 22 2.0506535656750202e-04</internalNodes>
          <leafValues>
            5.5339807271957397e-01 -6.9696968793869019e-01</leafValues></_>
        <_>
          <internalNodes>
            0 -1 5 -2.8513772413134575e-03</internalNodes>
          <leafValues>
            3.3157789707183838e-01 -8.0342853069305420e-01</leafValues></_>
        <_>
          <internalNodes>
            0 -1 4 1.2422864884138107e-01</internalNodes>
          <leafValues>
            -4.9466946721076965e-01 5.8797556161880493e-01</leafValues></_>
        <_>
          <internalNodes>
            0 -1 10 4.3745841830968857e-02</internalNodes>
          <leafValues>
            -4.3176296353340149e-01 5.9442746639251709e-01</leafValues></_>
        <_>
          <internalNodes>
            0 -1 15 7.2267255745828152e-03</internalNodes>
          <leafValues>
            2.5997406244277954e-01 -8.5710912942886353e-01</leafValues></_>
        <_>
          <internalNodes>
            0 -1 16 -3.0935034155845642e-03</internalNodes>
          <leafValues>
            -8.9508020877838135e-01 1.8859474360942841e-01</leafValues></_>
        <_>
          <internalNodes>
            0 -1 24 -1.8770264461636543e-02</internalNodes>
          <leafValues>
            3.5552990436553955e-01 -5.4668468236923218e-01</leafValues></_></weakClassifiers></_>
    <!-- stage 4 -->
    <_>
      <maxWeakCount>8</maxWeakCount>
      <stageThreshold>-8.3914881944656372e-01</stageThreshold>
      <weakClassifiers>
        <_>
          <internalNodes>
            0 -1 21 1.6983279492706060e-03</internalNodes>
          <leafValues>
            -6.8458783626556396e-01 5.6592959165573120e-01</leafValues></_>
        <_>
          <internalNodes>
            0 -1 2 3.2670378684997559e-02</internalNodes>
          <leafValues>
            -4.0162542462348938e-01 6.4434492588043213e-01</leafValues></_>
        <_>
          <internalNodes>
            0 -1 8 6.1062015593051910e-02</internalNodes>
          <leafValues>
            -5.6735247373580933e-01 4.2137989401817322e-01</leafValues></_>
        <_>
          <internalNodes>
            0 -1 19 1.5770781785249710e-02</internalNodes>
          <leafValues>
            2.8580671548843384e-01 -8.0288130044937134e-01</leafValues></_>
        <_>
          <internalNodes>
            0 -1 26 -5.3949863649904728e-03</internalNodes>
          <leafValues>
            4.7785627841949463e-01 -4.5180988311767578e-01</leafValues></_>
        <_>
          <internalNodes>
            0 -1 12 -1.4408234506845474e-02</internalNodes>
          <leafValues>
            3.6427646875381470e-01 -5.2966094017028809e-01</leafValues></_>
        <_>
          <internalNodes>
            0 -1 9 -3.4649938344955444e-02</internalNodes>
          <leafValues>
            4.0894412994384766e-01 -4.7019365429878235e-01</leafValues></_>
        <_>
          <internalNodes>
            0 -1 17 5.0812511472031474e-04</internalNodes>
          <leafValues>
            -8.0271202325820923e-01 2.0719946920871735e-01</leafValues></_></weakClassifiers></_></stages>
  <features>
    <_>
      <rects>
        <_>
          0 3 4 12 -1.</_>
        <_>
          2 3 2 12 2.</_></rects>
      <tilted>0</tilted></_>
    <_>
      <rects>
        <_>
          0 6 2 9 -1.</_>
        <_>
          1 6 1 9 2.</_></rects>
      <tilted>0</tilted></_>
    <_>
      <rects>
        <_>
          0 6 4 8 -1.</_>
        <_>
          2 6 2 8 2.</_></rects>
      <tilted>0</tilted></_>
    <_>
      <rects>
        <_>
          3 0 15 8 -1.</_>
        <_>
          3 4 15 4 2.</_></rects>
      <tilted>0</tilted></_>
    <_>
      <rects>
        <_>
          3 0 16 8 -1.</_>
        <_>
          3 4 16 4 2.</_></rects>
      <tilted>0</tilted></_>
    <_>
      <rects>
        <_>
          3 8 9 4 -1.</_>
        <_>
          6 8 3 4 3.</_></rects>
      <tilted>0</tilted></_>
    <_>
      <rects>
        <_>
          3 14 16 6 -1.</_>
        <_>
          3 17 16 3 2.</_></rects>
      <tilted>0</tilted></_>
    <_>
      <rects>
        <_>
          3 16 14 4 -1.</_>
        <_>
          3 18 14 2 2.</_></rects>
      <tilted>0</tilted></_>
    <_>
      <rects>
        <_>
          4 0 12 12 -1.</_>
        <_>
          4 4 12 4 3.</_></rects>
      <tilted>0</tilted></_>
    <_>
      <rects>
        <_>
          4 14 12 6 -1.</_>
        <_>
          4 17 12 3 2.</_></rects>
      <tilted>0</tilted></_>
    <_>
      <rects>
        <_>
          5 11 7 9 -1.</_>
        <_>
          5 14 7 3 3.</_></rects>
      <tilted>0</tilted></_>
    <_>
      <rects>
        <_>
          6 0 8 9 -1.</_>
        <_>
          6 3 8 3 3.</_></rects>
      <tilted>0</tilted></_>
    <_>
      <rects>
        <_>
          6 4 3 12 -1.</_>
        <_>
          6 8 3 4 3.</_></rects>
      <tilted>0</tilted></_>
    <_>
      <rects>
        <_>
          7 7 8 6 -1.</_>
        <_>
          11 7 4 6 2.</_></rects>
      <tilted>0</tilted></_>
    <_>
      <rects>
        <_>
          8 7 12 3 -1.</_>
        <_>
          12 7 4 3 3.</_></rects>
      <tilted>0</tilted></_>
    <_>
      <rects>
        <_>
          9 9 6 2 -1.</_>
        <_>
          11 9 2 2 3.</_></rects>
      <tilted>0</tilted></_>
    <_>
      <rects>
        <_>
          9 10 6 2 -1.</_>
        <_>
          11 10 2 2 3.</_></rects>
      <tilted>0</tilted></_>
    <_>
      <rects>
        <_>
          9 11 4 2 -1.</_>
        <_>
          11 11 2 2 2.</_></rects>
      <tilted>0</tilted></_>
    <_>
      <rects>
        <_>
          10 9 6 4 -1.</_>
        <_>
          12 9 2 4 3.</_></rects>
      <tilted>0</tilted></_>
    <_>
      <rects>
        <_>
          10 9 6 4 -1.</_>
        <_>
          13 9 3 4 2.</_></rects>
      <tilted>0</tilted></_>
    <_>
      <rects>
        <_>
          10 10 6 2 -1.</_>
        <_>
          12 10 2 2 3.</_></rects>
      <tilted>0</tilted></_>
    <_>
      <rects>
        <_>
          10 10 6 4 -1.</_>
        <_>
          13 10 3 4 2.</_></rects>
      <tilted>0</tilted></_>
    <_>
      <rects>
        <_>
          11 10 2 2 -1.</_>
        <_>
          11 11 2 1 2.</_></rects>
      <tilted>0</tilted></_>
    <_>
      <rects>
        <_>
          16 0 2 18 -1.</_>
        <_>
          16 6 2 6 3.</_></rects>
      <tilted>0</tilted></_>
    <_>
      <rects>
        <_>
          16 5 4 8 -1.</_>
        <_>
          18 5 2 8 2.</_></rects>
      <tilted>0</tilted></_>
    <_>
      <rects>
        <_>
          16 5 4 12 -1.</_>
        <_>
          18 5 2 12 2.</_></rects>
      <tilted>0</tilted></_>
    <_>
      <rects>
        <_>
          18 8 2 4 -1.</_>
        <_>
          19 8 1 4 2.</_></rects>
      <tilted>0</tilted></_></features></cascade>
</opencv_storage>
