<?xml version="1.0"?>
<opencv_storage>
<stage4>
  <maxWeakCount>8</maxWeakCount>
  <stageThreshold>-8.3914881944656372e-01</stageThreshold>
  <weakClassifiers>
    <_>
      <internalNodes>
        0 -1 61521 1.6983279492706060e-03</internalNodes>
      <leafValues>
        -6.8458783626556396e-01 5.6592959165573120e-01</leafValues></_>
    <_>
      <internalNodes>
        0 -1 3948 3.2670378684997559e-02</internalNodes>
      <leafValues>
        -4.0162542462348938e-01 6.4434492588043213e-01</leafValues></_>
    <_>
      <internalNodes>
        0 -1 28575 6.1062015593051910e-02</internalNodes>
      <leafValues>
        -5.6735247373580933e-01 4.2137989401817322e-01</leafValues></_>
    <_>
      <internalNodes>
        0 -1 61332 1.5770781785249710e-02</internalNodes>
      <leafValues>
        2.8580671548843384e-01 -8.0288130044937134e-01</leafValues></_>
    <_>
      <internalNodes>
        0 -1 78079 -5.3949863649904728e-03</internalNodes>
      <leafValues>
        4.7785627841949463e-01 -4.5180988311767578e-01</leafValues></_>
    <_>
      <internalNodes>
        0 -1 41871 -1.4408234506845474e-02</internalNodes>
      <leafValues>
        3.6427646875381470e-01 -5.2966094017028809e-01</leafValues></_>
    <_>
      <internalNodes>
        0 -1 33782 -3.4649938344955444e-02</internalNodes>
      <leafValues>
        4.0894412994384766e-01 -4.7019365429878235e-01</leafValues></_>
    <_>
      <internalNodes>
        0 -1 57817 5.0812511472031474e-04</internalNodes>
      <leafValues>
        -8.0271202325820923e-01 2.0719946920871735e-01</leafValues></_></weakClassifiers></stage4>
</opencv_storage>
