<?xml version="1.0"?>
<opencv_storage>
<stage10>
  <maxWeakCount>10</maxWeakCount>
  <stageThreshold>-6.5274465084075928e-01</stageThreshold>
  <weakClassifiers>
    <_>
      <internalNodes>
        0 -1 48579 1.4127964386716485e-03</internalNodes>
      <leafValues>
        -3.5555556416511536e-01 5.8383840322494507e-01</leafValues></_>
    <_>
      <internalNodes>
        0 -1 70688 -2.4125233176164329e-04</internalNodes>
      <leafValues>
        -8.5442984104156494e-01 2.1859927475452423e-01</leafValues></_>
    <_>
      <internalNodes>
        0 -1 4452 2.2283557802438736e-02</internalNodes>
      <leafValues>
        -4.3633878231048584e-01 3.5042479634284973e-01</leafValues></_>
    <_>
      <internalNodes>
        0 -1 49620 4.6214193105697632e-02</internalNodes>
      <leafValues>
        -2.3873242735862732e-01 6.3499540090560913e-01</leafValues></_>
    <_>
      <internalNodes>
        0 -1 57704 3.6867499351501465e-02</internalNodes>
      <leafValues>
        1.8229115009307861e-01 -8.3927541971206665e-01</leafValues></_>
    <_>
      <internalNodes>
        0 -1 57396 -8.7393214926123619e-05</internalNodes>
      <leafValues>
        2.9201039671897888e-01 -4.7750389575958252e-01</leafValues></_>
    <_>
      <internalNodes>
        0 -1 67807 -9.0908014681190252e-04</internalNodes>
      <leafValues>
        -9.0403932332992554e-01 1.5575046837329865e-01</leafValues></_>
    <_>
      <internalNodes>
        0 -1 48596 2.4969929829239845e-02</internalNodes>
      <leafValues>
        1.2382335960865021e-01 -8.0292409658432007e-01</leafValues></_>
    <_>
      <internalNodes>
        0 -1 41466 2.8109043836593628e-02</internalNodes>
      <leafValues>
        1.3169810175895691e-01 -8.0039286613464355e-01</leafValues></_>
    <_>
      <internalNodes>
        0 -1 49269 3.2935806084424257e-03</internalNodes>
      <leafValues>
        -3.8504046201705933e-01 3.2469758391380310e-01</leafValues></_></weakClassifiers></stage10>
</opencv_storage>
